digraph Tree {
node [shape=box, style="filled, rounded", color="black", fontname="helvetica"] ;
edge [fontname="helvetica"] ;
0 [label="Standoff distance <= 2.0\nsquared_error = 1385900.64\nsamples = 411\nvalue = 485.419", fillcolor="#fef9f6"] ;
1 [label="Explosive mass <= 14.25\nsquared_error = 5103499.54\nsamples = 37\nvalue = 3487.675", fillcolor="#f4c9aa"] ;
0 -> 1 [labeldistance=2.5, labelangle=45, headlabel="True"] ;
2 [label="Explosive mass <= 2.5\nsquared_error = 1604495.499\nsamples = 20\nvalue = 2032.298", fillcolor="#f9e0cf"] ;
1 -> 2 ;
3 [label="Explosive mass <= 1.0\nsquared_error = 193067.623\nsamples = 7\nvalue = 743.847", fillcolor="#fdf5ef"] ;
2 -> 3 ;
4 [label="(...)", fillcolor="#C0C0C0"] ;
3 -> 4 ;
11 [label="(...)", fillcolor="#C0C0C0"] ;
3 -> 11 ;
16 [label="Standoff distance <= 1.25\nsquared_error = 989258.521\nsamples = 13\nvalue = 2726.08", fillcolor="#f6d5bd"] ;
2 -> 16 ;
17 [label="(...)", fillcolor="#C0C0C0"] ;
16 -> 17 ;
30 [label="(...)", fillcolor="#C0C0C0"] ;
16 -> 30 ;
41 [label="Standoff distance <= 1.25\nsquared_error = 3796416.0\nsamples = 17\nvalue = 5199.882", fillcolor="#eeae80"] ;
1 -> 41 ;
42 [label="Explosive mass <= 18.25\nsquared_error = 656982.59\nsamples = 9\nvalue = 6935.828", fillcolor="#e99254"] ;
41 -> 42 ;
43 [label="(...)", fillcolor="#C0C0C0"] ;
42 -> 43 ;
50 [label="(...)", fillcolor="#C0C0C0"] ;
42 -> 50 ;
57 [label="Explosive mass <= 20.25\nsquared_error = 124109.685\nsamples = 8\nvalue = 3246.942", fillcolor="#f5cdb0"] ;
41 -> 57 ;
58 [label="(...)", fillcolor="#C0C0C0"] ;
57 -> 58 ;
67 [label="(...)", fillcolor="#C0C0C0"] ;
57 -> 67 ;
72 [label="Standoff distance <= 3.0\nsquared_error = 38185.622\nsamples = 374\nvalue = 188.405", fillcolor="#fffefd"] ;
0 -> 72 [labeldistance=2.5, labelangle=-45, headlabel="False"] ;
73 [label="Explosive mass <= 12.5\nsquared_error = 182131.927\nsamples = 20\nvalue = 812.079", fillcolor="#fdf4ed"] ;
72 -> 73 ;
74 [label="Explosive mass <= 6.5\nsquared_error = 43625.966\nsamples = 11\nvalue = 470.585", fillcolor="#fef9f6"] ;
73 -> 74 ;
75 [label="(...)", fillcolor="#C0C0C0"] ;
74 -> 75 ;
88 [label="(...)", fillcolor="#C0C0C0"] ;
74 -> 88 ;
95 [label="Explosive mass <= 18.0\nsquared_error = 34677.486\nsamples = 9\nvalue = 1229.459", fillcolor="#fbede3"] ;
73 -> 95 ;
96 [label="(...)", fillcolor="#C0C0C0"] ;
95 -> 96 ;
103 [label="(...)", fillcolor="#C0C0C0"] ;
95 -> 103 ;
110 [label="Standoff distance <= 5.0\nsquared_error = 6835.843\nsamples = 354\nvalue = 153.169", fillcolor="#fffefe"] ;
72 -> 110 ;
111 [label="Explosive mass <= 14.5\nsquared_error = 24964.387\nsamples = 32\nvalue = 342.743", fillcolor="#fefbf9"] ;
110 -> 111 ;
112 [label="(...)", fillcolor="#C0C0C0"] ;
111 -> 112 ;
127 [label="(...)", fillcolor="#C0C0C0"] ;
111 -> 127 ;
142 [label="Standoff distance <= 8.0\nsquared_error = 1107.813\nsamples = 322\nvalue = 134.329", fillcolor="#fffffe"] ;
110 -> 142 ;
143 [label="(...)", fillcolor="#C0C0C0"] ;
142 -> 143 ;
158 [label="(...)", fillcolor="#C0C0C0"] ;
142 -> 158 ;
}
